48 100
class -0.06435193 -0.21595062 0.42329326 0.10093959 -0.7429934 0.5482083 -0.2845131 0.4286951 -0.40468052 -0.4463802 -0.021965781 -0.05861468 0.28911793 -0.24724513 0.15110601 -0.3071176 0.2410027 0.37144417 -0.4959978 -0.11736251 -0.14121468 -0.27006435 -0.69433784 -0.32762083 0.051929872 -0.056966852 -0.40206113 0.23639354 0.25854248 0.14118269 -0.6664661 0.1357132 0.0077105667 -0.17197697 0.36988285 -0.48951343 0.4106189 0.2737469 -0.13403589 -0.49698988 -0.3340515 0.13196175 -0.18384595 0.18274365 0.00041108765 -0.010189383 -0.23436975 -0.112662464 -0.14869252 -0.47850657 0.06779693 -0.17438671 -0.22040115 0.16640837 0.24736474 0.1657875 0.15259285 -0.41950417 -0.026540864 0.15715551 0.22580482 0.16099189 -0.2700909 0.2521531 0.113138504 -0.40782782 -0.22161494 -0.12771955 0.21123879 -0.40890643 0.63944775 -0.028999712 0.16211796 0.11074375 0.24769828 0.15892239 0.46580446 0.39639083 0.42094272 0.27335197 0.5237051 -0.23044689 -0.07373774 -0.050562024 -0.81463456 0.15108068 0.38668662 0.10567781 -0.40972131 -0.33979806 0.025108207 0.25511813 0.25092974 -0.26045182 -0.08867201 0.2524012 -0.45175493 0.70307565 0.069439195 0.3309684
color -0.32819703 -0.013729032 0.4991824 0.15686616 -0.010355445 0.42264992 -0.35054877 0.41625458 -0.20329401 -0.08686252 -0.6523974 -0.3739821 0.98430794 0.5008949 -0.15718746 0.13241205 0.07312544 0.23833404 -0.14232926 0.21514544 0.16630827 -0.0711604 -0.47709092 -0.38770026 0.11558365 0.03415927 0.18831359 0.47161844 0.4133366 0.70406914 -0.44644976 -0.07980614 0.0006706809 0.08503794 0.28608263 -0.1644825 0.43284038 -0.20344563 0.22814493 -0.47456276 0.15833609 -0.09900524 0.7300112 0.18346685 0.09701881 0.338531 -0.2518678 -0.36997065 0.026263334 -0.3478679 -0.3567953 0.12092282 0.13057536 0.015632441 0.2811554 -0.15275833 0.10076264 0.16255865 -0.58431906 0.6652528 0.007696538 -0.63155866 0.0017942692 0.3411748 0.26999807 -0.1959263 -0.3036109 -0.25669703 0.11954235 -0.1170759 0.75699025 0.076350346 -0.23975685 0.06873962 -0.17821859 -0.46534654 0.66152763 -0.22648668 -0.27695084 -0.07328694 -0.22130114 -0.57033414 -0.09170135 -0.2376593 -0.39594564 -0.39867714 0.025038214 0.33426407 -0.029484851 -0.75598687 0.3553945 0.03815526 -0.14741655 -0.5084848 0.34757385 0.5186378 0.16431026 -0.11015321 0.164882 -0.5198583
would -0.28180447 -0.2515751 0.1310469 -0.11983595 -0.15061301 0.26675847 0.37613434 0.22062327 -0.40250567 -0.32309332 -0.38346878 -0.08226296 0.3399633 0.10485801 0.14444266 -0.033637 0.10649086 -0.21770893 0.07608375 0.30720493 -0.06650891 -0.06143973 -0.06646012 0.013872001 -0.019151453 -0.032101642 -0.30396444 0.2843093 0.37450024 0.19910665 -0.24152042 -0.24312964 -0.034929015 0.12196466 0.2040489 -0.013577284 0.040838305 0.17461249 -0.027289003 -0.10292279 -0.09843769 -0.3304711 0.22093478 -0.010666675 0.22215803 0.22153358 0.0754883 -0.19983882 0.13784648 0.117600426 0.006439026 -0.19570783 0.062431082 0.3356072 -0.005642139 0.11227044 -0.018008774 0.18804541 -0.3112714 0.16238162 -0.16140918 -0.31506148 -0.15743631 0.5299807 -0.04407867 -0.51010925 0.113854915 0.22105153 -0.046806168 0.06264231 0.37913862 -0.036637317 -0.06326844 -0.021224428 0.124577455 -0.143904 0.25387943 0.04906756 -0.31982625 0.12439485 0.08996246 -0.14304174 -0.22844283 -0.21575837 0.041188765 -0.19204196 0.029518047 0.07705752 -0.1699341 -0.13431805 0.14455406 0.32423165 0.0764438 -0.017197134 0.14724801 0.35280895 0.15247785 0.06883211 0.12382069 -0.19462672
card -0.4496545 -0.3349288 0.4885154 0.049336776 -0.2994631 0.82398087 -0.74339294 -0.1825358 -0.4560071 -0.8834539 -0.1515521 0.13112257 -0.20933403 0.24509972 -0.036966104 -0.033899758 0.21749805 0.4371071 -0.1916844 0.5462922 0.54602736 0.20205002 -0.2675142 -0.679152 -0.18548077 -0.2638388 -0.027627327 -0.09931601 0.11804664 0.17336562 -0.3632801 0.45117158 -0.17953195 0.33771867 0.17090027 -0.06946815 0.06872237 0.14953507 0.2700064 -0.4870345 -0.6310695 -0.040743828 -0.285146 -0.17917536 -0.41798717 0.29977387 -0.1697318 -0.21948868 -0.16378441 0.036058668 0.48592272 0.36616534 -0.43062618 -0.12841007 0.5273052 -0.03697416 -0.5846489 -0.14538373 -0.036985744 0.5195016 0.30203158 0.21532482 -0.034006007 0.318134 0.41979715 -0.58786047 0.053360417 0.03974604 0.025564613 -0.57204777 0.22248569 -0.20374714 -0.09389312 0.47924644 -0.21019162 -0.16434902 -0.036041807 0.34149477 0.5095935 -0.024330461 0.09838999 -0.1603968 -0.07350314 -0.42421973 -0.7403599 -0.1511808 0.51550394 0.48799372 -0.06688373 0.045458414 -0.17314023 0.09295375 0.19821672 -0.65949833 0.11754773 -0.21247293 -0.4433299 0.030912908 0.02268432 0.059498694
code -0.17234741 -0.11553165 -0.19703278 0.07330698 0.3843571 0.2934929 0.31598312 0.1450815 -0.39170152 0.13287963 -0.6089477 -0.23832983 0.042405404 0.5175744 0.12779611 0.04336277 -0.051162 -0.28817976 -0.005599818 0.55447936 0.06574216 -0.14176291 -0.09217553 -0.15287298 -0.13125303 0.061519995 -0.014064107 0.10069847 0.26944786 0.07441885 -0.1559677 -0.2699044 -0.0064998134 0.049638998 0.15292183 -0.0635183 0.2141704 -0.11375599 0.25281876 -0.12164521 0.0996695 -0.43124294 0.27074698 0.03744398 0.004342225 0.37025928 -0.33623597 -0.052271817 0.099843904 -0.15247153 -0.28953138 0.0038962855 0.32369328 0.3062232 0.22847018 -0.038484335 0.09154086 0.041168857 -0.26012015 0.27666044 -0.032026198 -0.25088975 -0.025349991 0.32632902 -0.07073644 0.032594655 -0.18822408 0.11141579 -0.5515422 0.15750358 0.19876155 0.19341692 -0.03378124 -0.09612895 -0.11453786 -0.24262051 0.123477384 -0.118415825 -0.16970569 0.32134473 -0.113575585 -0.08979382 -0.1868898 -0.42894164 -0.142056 -0.04437459 -0.023276825 -0.08768327 0.11069734 -0.45605958 0.34171185 0.12699062 -0.4819312 0.10243127 -0.031443663 0.25569153 0.026160348 -0.113343336 0.15655123 -0.31670898
http -0.47366858 -0.020247191 0.12365808 -0.15757948 -0.2722087 0.77305967 0.712486 0.053597268 -0.30935177 -0.34574792 0.097227365 0.12599455 0.34880117 0.08463026 0.3475522 -0.0036638966 0.19031416 -0.34746423 -0.3254042 -0.09440481 0.073382705 0.09053019 -0.24553074 -0.13679542 -0.25958106 -0.011878666 -0.16429421 -0.015228361 -0.058056973 0.11242628 -0.34811208 -0.45530245 0.1753043 -0.25039065 0.3792901 -0.38199338 0.3517487 0.21390122 -0.034293473 -0.35710818 -0.2431582 -0.59768677 -0.20982891 0.11592989 -0.104616284 0.24465527 0.10421376 0.039426565 0.00050698745 -0.1647625 0.13847099 -0.24319412 0.020310508 0.622699 0.25394052 0.31385982 -0.23486829 -0.22963168 -0.1124758 -0.13763751 0.04869926 -0.27018234 -0.52467406 0.0011839204 -0.038945902 -0.31871712 0.33925396 0.56720513 -0.22594433 -0.34357813 0.44525978 0.03683592 -0.13901873 0.17348275 0.2895305 -0.26387843 0.02931305 0.1728188 -0.5498375 0.2871907 -0.07763841 -0.08634141 -0.17576146 -0.37534478 -0.06783583 -0.2449254 0.2148416 0.103155114 -0.16547127 -0.41164932 0.4643181 0.40309966 0.116853066 0.14837371 -0.27566445 0.3337132 -0.2793218 0.50230557 -0.18897676 -0.2137936
file -0.0654526 -0.21147932 -0.2817047 0.06927581 0.041167304 0.24951023 0.0820864 0.14755908 -0.23513152 -0.07552887 -0.20022903 0.04120719 0.23681055 0.72668356 -0.026372455 -0.17605409 -0.20783862 0.13392715 -0.21599136 -0.14619914 0.15706445 0.008927178 -0.3192615 -0.66377 0.39060965 0.1493302 0.44014567 -0.1542712 0.5796438 -0.1065548 -0.3539364 0.20817973 0.060188856 0.080871396 -0.31994283 -0.6303184 0.091062 0.68118894 -0.16148433 -0.3834405 -0.53605485 -0.0076669063 0.05242856 0.31665507 0.2934788 0.31774366 -0.31023905 -0.5470261 -0.014867426 -0.4837631 0.6288521 0.43915787 -0.16286203 0.34653237 0.3461673 0.05524795 -0.0857894 -0.34586734 -0.17362785 -0.27746347 -0.4471596 0.03088768 -0.03182811 -0.3434388 0.40927008 -0.3104389 -0.13164967 -0.39075536 0.049695287 -0.18303075 0.4901041 0.1364467 -0.6655312 0.31227848 -0.073448725 0.2027163 -0.24314718 0.20303874 0.7396732 0.48986253 0.60178494 0.29555467 0.037649617 -0.16058284 -0.35045117 0.22946428 0.2337944 -0.3232552 0.28826153 -0.3163339 -0.123305745 -0.24401684 -0.04345548 -0.2413127 0.26752365 -0.62879235 -0.116483666 0.2874932 0.0407795 0.19628054
href -0.5507763 0.0787932 -0.032611288 -0.09376839 -0.28072986 0.63227963 0.611995 0.13737512 -0.24332252 -0.41300163 0.00986628 0.17900187 0.3773841 0.22791506 0.3484821 -0.035932813 0.08751686 -0.20249209 -0.23708773 -0.049657818 0.010460467 0.11100442 -0.27718282 -0.17440106 -0.24611789 -0.16395707 -0.18778986 -0.06650373 0.10789337 0.05898209 -0.29152787 -0.35137552 0.082439795 -0.26215768 0.4299219 -0.46111238 0.5184394 0.13271447 -0.106212065 -0.3566905 -0.24543594 -0.8060896 -0.18971257 -0.0415589 -0.12772119 0.18519382 0.058976028 0.0410539 0.051308956 0.010127948 0.050976112 -0.38613376 0.055956207 0.37785628 0.2919587 0.30534738 -0.42022097 -0.24181405 -0.026329206 -0.1251025 0.012386964 -0.29079497 -0.39438087 0.020109994 -0.09141369 -0.30928534 0.27185714 0.57124215 -0.16796742 -0.31195292 0.3831892 0.0099449605 -0.3150324 0.23955436 0.2204383 -0.27060482 0.09736433 0.1282244 -0.5194741 0.29582542 -0.036415603 -0.10283399 -0.17614673 -0.29555473 -0.04256198 -0.24287842 0.3530286 0.054282423 -0.24823958 -0.38411084 0.3976162 0.35569352 0.14789402 0.14729615 -0.13151991 0.23463373 -0.10751693 0.41517296 -0.36388433 -0.07778429
user -0.37548646 -0.0066325557 0.11453425 -0.021324676 0.10851667 -0.020245481 0.31907102 0.36323202 -0.34656385 -0.44771957 -0.13396876 -0.104275756 0.52920294 -0.022829382 0.0020493 0.13695695 0.07787968 -0.4482195 -0.12283587 -0.06311371 -0.24276938 0.018915681 0.04957366 -0.4417968 0.2847291 0.18967624 -0.21000995 -0.44186485 -0.13442144 0.23151948 -0.5278151 -0.39137623 -0.15141837 -0.19301662 0.047993183 0.09420785 -0.06942591 0.29370174 -0.21916643 -0.2049089 -0.7381678 0.13660912 0.04449569 0.5187078 0.23935324 0.1888269 0.06243143 -0.070089005 0.11061723 -0.42239705 0.11125724 0.043529764 -0.20529643 -0.1549322 -0.33104277 0.33866566 0.11257854 -0.2157939 0.0073247445 -0.029894639 -0.13613015 0.081412435 -0.30180597 0.12053711 0.52292234 0.0971747 -0.24988537 -0.1834755 0.36625278 -0.25304115 0.38901618 0.022289304 -0.5187811 -0.2838146 -0.022901706 -0.23885335 0.43184605 -0.061562512 0.04529877 0.39042255 0.31777573 -0.30272138 0.15300165 -0.19703954 -0.26674205 0.12930912 -0.06683644 0.018645534 -0.016536854 -0.11862007 0.28846768 -0.21625386 -0.065624654 -0.09169554 0.27128828 -0.4260558 0.13258925 0.22042829 0.43837488 0.04320547
database -0.20980208 -0.19242765 0.08876022 0.048350073 0.16785072 0.024778152 -0.06645803 0.20710605 0.1152825 -0.68988085 0.4402711 -0.0059154225 0.77829516 0.5493114 -0.11639915 0.44940433 0.10679493 0.62641525 0.25205857 0.31203365 0.35194758 0.06870865 -0.110416 -0.027958382 0.35442388 0.1015998 0.12707487 -0.075144134 0.49111784 0.3779674 0.011211498 0.14844751 -0.101000726 0.2150935 -0.15621565 -0.0017804743 0.053849943 0.16277999 0.056077786 -0.4502793 -0.31726152 -0.092954054 0.043838236 -0.20280412 0.14356825 0.22872694 -0.41627467 -0.7066788 0.021335347 0.37855715 0.13499287 -0.08133439 -0.36752167 -0.006195307 -0.01117397 -0.095819995 -0.31887838 0.17435753 -0.16178493 0.32908064 0.16109563 0.0015437956 0.1709654 -0.16807596 -0.04090058 -0.009587537 0.30214074 0.006915617 0.33278424 -0.1775279 0.199429 -0.0028940751 -0.41193235 0.35624394 -0.3739725 0.016948905 0.06974106 -0.03971174 -0.013400944 -0.30339456 0.049528386 -0.0907241 0.34780777 -0.33049503 -0.3652871 0.013382321 -0.041650932 0.18057175 -0.08470336 -0.012634732 0.11062915 0.06499716 -0.078238346 -0.40888137 -0.22391832 -0.39124218 0.031884693 0.20602821 -0.21047573 -0.09412963
application -0.05352457 0.27389482 0.02327167 0.04243563 -0.3101511 -0.205904 0.7542598 0.24110416 -0.12115997 0.114059865 0.41932985 0.6238576 0.14028054 -0.18769243 -0.07584137 -0.03560786 -0.26899177 -0.635328 -0.13936006 0.362732 -0.033851415 -0.018805526 -0.07471587 -0.37762436 0.37003547 0.08378961 0.33385056 -0.02828074 0.37533468 -0.027186569 -0.26283163 0.19501837 -0.06767272 -0.07224628 0.35442668 0.07299608 -0.057302292 0.50298256 -0.2676314 -0.22642148 -0.48100868 0.11385248 -0.5565318 0.43320718 0.07964134 0.2655841 0.23047574 -0.24120502 -0.0054830164 -0.044500906 0.13468902 0.24526714 -0.1601513 0.09903981 -0.20267276 -0.06432477 -0.11693539 -0.07642817 0.1363741 0.10085027 0.14790797 -0.43732095 -0.082826324 0.2520173 -0.03767137 0.18793127 -0.2783544 0.32433057 0.41688386 -0.18471542 0.15351158 0.10216346 -0.34534517 0.082795665 0.07818784 -0.4528839 0.5820235 -0.20769833 -0.27968228 0.049886286 -0.07928414 -0.31370932 -0.088914834 -0.3272221 0.00024414368 -0.03439989 -0.09168735 -0.06496775 -0.46158785 0.014049778 0.40329266 0.22232638 0.13399026 0.25780365 -0.31774187 -0.1625651 0.20481619 0.25212812 -0.008673992 0.29619998
script -0.33072746 0.19640662 0.04210168 0.007359991 -0.24069464 0.21040502 0.6839315 -0.28726113 -0.006728289 -0.33334047 0.38869032 0.20056973 0.23381358 0.09747384 -0.05171132 0.37095717 -0.017016571 -0.10508133 0.10382304 0.4682959 0.07379399 0.21554972 -0.17773885 -0.3772894 -0.18944132 0.037262022 0.01898677 -0.26999205 -0.22155423 0.06074986 -0.17076112 0.025222478 -0.20241877 -0.2341653 0.06441592 -0.11597239 0.20947023 0.34321997 0.19965295 -0.13408263 -0.33825046 -0.34423423 -0.37740573 0.19880798 -0.10651506 0.16100006 -0.30967498 0.09051948 0.045215584 0.17061941 -0.22193818 -0.074231185 -0.12233501 0.41765425 -0.079106644 -0.21516407 -0.36302942 -0.21033686 0.041994374 0.08146856 0.27575195 -0.20228453 -0.22210392 0.28184137 -0.07052266 0.36348143 -0.05464732 0.4541736 -0.20040523 -0.23830909 -0.0742336 0.13294332 -0.23697205 0.17099757 -0.16828188 -0.14066258 0.363278 -0.09222151 -0.49131262 0.20031941 -0.26276448 -0.12570553 -0.078737475 -0.42867222 -0.26925316 -0.08910634 0.5380005 0.14404061 0.0038585851 -0.2921788 0.48949793 0.0527729 -0.21813352 0.042590935 -0.095942765 0.21219012 -0.22807752 0.16450061 -0.058762956 0.21770243
need -0.22508012 0.21235012 0.011383149 0.034967635 0.033323888 0.2576864 -0.5262215 0.33593366 -0.6339482 -0.33456352 0.072509 -0.27423087 0.08451924 0.042382568 -0.4099956 0.057215653 -0.30241683 0.066625595 0.068393424 0.61832064 0.5450433 -0.13921136 0.0939315 -0.4710285 0.15774132 -0.23271145 0.17592773 0.09173484 0.12094101 0.20101279 -0.0022266426 0.20040146 0.21510495 0.17425708 0.41666737 0.20089926 0.03985711 0.14795168 0.13900487 -0.2861096 -0.25120196 0.19765544 -0.004373778 0.2851934 -0.012821025 0.2918184 -0.25790623 -0.2291957 -0.21661843 -0.15979685 -0.093606755 0.371709 -0.17743084 -0.28600702 -0.24760628 -0.2784439 -0.28385836 0.25826523 -0.07789726 0.3777892 0.120647594 0.33206898 0.17623462 0.3418469 0.24153255 -0.047631785 -0.53475213 0.07509523 -0.03136545 0.07475184 0.057424925 0.20502998 -0.29435593 0.23582715 -0.1257808 -0.58898836 -0.046990428 0.04123552 0.13727707 0.24925514 0.44103396 0.00055932184 -0.2524474 -0.18274975 -0.62596935 0.20043634 -0.044320486 0.3877413 -0.42228115 -0.29243043 0.2445869 0.03295782 -0.20328264 0.00045129657 0.00039080327 -0.45870683 0.2509332 0.0421152 0.3532412 -0.15021616
could -0.5154678 -0.5289847 0.3348811 -0.041740347 -0.18013969 0.32817248 -0.004949701 0.5366385 -0.40597665 -0.33455706 -0.5827152 -0.09250696 0.50646675 0.068136334 0.4071152 0.12390113 0.25236723 0.26399797 0.11630046 0.5215825 0.13317691 -0.033961404 -0.24218902 0.26056752 -0.26046494 -0.12477292 -0.39320764 0.1473274 0.7769285 0.10409845 -0.44689924 -0.37634897 -0.16200896 0.13379432 0.41446897 -0.18117331 0.12027335 0.04007136 0.12819952 -0.58781356 -0.08810067 -0.4541429 0.227215 -0.16788997 0.17048828 0.51389563 0.087885715 -0.288999 -0.1539729 0.21890163 -0.04021959 -0.20431824 0.1327431 0.31971714 0.048347183 0.4116497 0.08341262 0.2181513 -0.36046162 0.70738703 -0.025230462 -0.23804446 -0.38355345 0.45696256 -0.07886715 -0.38120824 0.22241315 0.2191927 0.29130787 0.0017258992 0.7681609 -0.23729357 0.0832498 -0.108019434 0.17168204 -0.16386233 0.40310526 0.30947313 -0.20226043 0.22191264 0.1689995 -0.41870108 -0.116098896 -0.4219406 0.030660462 -0.5312157 -0.2127948 0.037482716 -0.0667471 -0.020780941 0.09574176 0.5773697 0.23695989 -0.13993542 -0.21624455 0.26773098 0.19449377 -0.19103502 0.18448159 -0.32159933
like -0.040842235 -0.17947587 0.0006526641 -0.03710682 -0.22600116 0.4289614 0.29367462 0.24941793 -0.23346 -0.3757448 -0.3624361 -0.28716174 0.49273053 0.06285446 0.108602315 -0.16033058 0.07168336 0.0024664002 -0.14065173 -0.18337454 -0.1948052 -0.078491956 -0.15285379 -0.45706978 0.040799554 0.096946 -0.13149115 0.12394962 0.081389375 0.22963764 -0.56574166 -0.25480255 0.06284753 0.12855248 -0.08799572 -0.36143142 0.14540201 0.088998705 -0.08048988 -0.13288864 -0.39113438 0.18887854 0.28822362 0.36132383 0.38474134 -0.01918906 0.02315738 -0.17661875 -0.052297667 -0.22412 0.19522767 -0.31666222 0.038196016 0.15729581 -0.028465867 -0.0063995975 0.17717914 -0.13281061 -0.28810754 -0.23526241 -0.24436809 -0.30998918 -0.19560216 0.12527502 0.19379288 -0.468324 -0.48483667 -0.32347965 -0.095424935 -0.28776333 0.42090833 0.1401824 -0.100103766 -0.11573799 0.21907772 0.045076396 0.24057207 0.20608364 0.13892806 0.23456281 0.3105709 -0.21756177 -0.24083471 0.063660644 -0.32517952 0.008930687 0.10966745 -0.1772652 0.029331286 -0.26483828 -0.049790863 -0.12000822 -0.0708169 0.0152408 0.25690353 0.41271302 -0.0047127074 0.3362826 0.16110569 0.07894527
want -0.2189576 0.22484161 0.04743809 0.1950078 0.13126537 0.020385757 0.12657024 0.021774046 0.15957375 -0.31277764 -0.14322624 0.4839113 0.7848749 0.50949913 -0.06771254 0.3111249 -0.11494771 0.012286941 0.49755317 0.38117266 0.07005737 0.19900183 -0.07490856 -0.46189234 0.18828882 -0.07649659 0.12171882 -0.06669571 0.36626017 -0.15886389 -0.18006754 0.06811699 -0.13889109 0.36829522 -0.19583273 -0.2505839 0.16932718 -0.28987187 -0.10032204 -0.083365284 -0.3046436 -0.3369417 -0.025614006 0.25002715 0.25145862 0.4633768 0.061494116 -0.13300425 0.3105262 0.029267943 -0.055150773 0.4774268 0.14616476 -0.11396564 -0.1522848 0.06302611 0.047595426 0.29712424 -0.19287896 0.29745027 -0.17260368 -0.4776392 -0.029321356 -0.04528992 -0.19932994 0.12816463 -0.18818502 0.13863525 0.050440323 0.064565316 0.110855676 0.25010166 -0.1904977 0.018131511 -0.10569494 -0.2937396 0.017075159 -0.06497353 -0.24249102 -0.22778177 -0.3915932 -0.22805184 -0.071998626 -0.06587858 0.17154382 -0.7479704 -0.12752435 0.089984894 0.07852333 -0.0005144531 0.11752121 0.059747446 -0.13489953 -0.38843215 0.17953132 0.18436386 0.34065434 -0.4616808 0.13098747 0.4164538
integer -0.26917937 0.44217002 0.22544533 0.16884066 0.26956925 0.40282473 0.3703391 -0.060158793 0.17010751 -0.54340297 0.866844 0.31918016 0.79106736 0.731945 0.107607394 0.4849531 -0.20821229 0.24825418 -0.1665027 0.50379694 0.6100229 0.22471587 -0.064919166 -0.8747524 0.29245776 0.19323044 0.6166855 -0.6025525 -0.074239664 0.33463898 0.022660866 0.03920288 -0.028168332 -0.16784117 0.012976914 -0.20490281 -0.03456268 0.10604997 0.13664715 -0.7298186 -0.27960566 -0.19328041 -0.34651962 0.02917743 -0.032122795 0.54571706 -0.29105383 -0.112065 0.2687191 -0.037151746 0.47362038 0.15041465 -0.42340916 0.11030574 0.20178187 -0.17048082 -0.47807866 0.16135828 -0.24288665 0.5472948 0.42279458 -0.39804766 -0.13872519 -0.31960973 0.16509512 0.39151686 0.10417682 0.25004894 0.29100692 -0.3459304 0.041389536 -0.00339427 -0.7211815 0.79460055 -0.077192165 -0.40336907 -0.021203963 -0.24185802 -0.32553798 -0.110607095 -0.32109147 -0.08338473 0.391489 -0.64668566 -0.1969335 -0.12339203 0.3490609 0.25072157 0.52554095 -0.65327054 0.699956 -0.030803146 -0.3487733 0.13686115 -0.4097718 -0.92567825 0.004722739 0.11835644 0.19134998 -0.2996541
using -0.12035527 -0.0027855013 -0.05320685 0.0058919317 -0.014443108 0.09289344 -0.012878136 0.05003097 -0.2416068 -0.21496029 -0.13371465 -0.22988948 0.5258505 0.39978418 -0.07370628 0.0039270986 -0.27963415 0.19242536 0.14191586 -0.005063513 0.19224949 -0.092463866 -0.08485727 -0.3244035 0.3400733 0.016816711 0.2235908 0.058060776 0.39890572 -0.097637884 -0.018714372 0.22604348 0.22298874 0.07372807 -0.14833505 -0.38864383 0.028174182 0.48491848 -0.21281673 -0.3301865 -0.2556992 0.10866139 0.1539267 0.38489723 0.41198316 0.34515905 -0.20261422 -0.27785295 0.20598175 -0.30814925 0.3192479 0.24746317 0.02201073 0.46562487 0.06555738 -0.09095351 0.14041361 -0.028556207 -0.39220414 -0.19115771 -0.3323693 0.15064321 0.03206791 -0.17787625 0.10848231 -0.26778334 -0.08294637 -0.17333616 0.07511247 0.22349676 0.36039037 0.16217636 -0.35987 0.15831259 0.014006613 0.034822606 -0.30202693 0.26201984 0.29008064 0.30559856 0.4913389 0.3732504 0.026485285 0.18478502 -0.10679967 -0.020722711 -0.06817584 -0.05624026 0.22274642 -0.24583767 0.02889113 -0.09836304 0.010852015 -0.044312764 0.21862336 -0.32674158 0.070821606 0.14891106 0.30860022 0.20418034
temp -0.31225607 -0.042728305 0.31078878 0.2091719 0.08358666 0.5911127 -0.21990122 0.35396978 -0.16998625 0.04390689 -0.6436512 -0.37511727 1.0232133 0.5992899 -0.09585454 0.21101922 -0.032499745 0.31883243 -0.17753142 0.36171243 0.43951207 -0.057304047 -0.36912987 -0.35383487 -0.059136666 -0.026719319 0.35904992 0.42924544 0.5833984 0.5968217 -0.2846277 -0.16562176 0.16798842 0.03647619 0.33293143 -0.32676223 0.4891301 -0.19259958 0.3099068 -0.620624 0.24274927 -0.18672581 0.745871 0.2631138 0.052928697 0.5624638 -0.43051776 -0.28806382 -0.060712136 -0.23179697 -0.45219266 0.046798207 0.15833148 0.2058321 0.29887784 -0.16239211 0.13690093 0.18563543 -0.70576704 0.5530652 -0.023087483 -0.6133612 0.01290739 0.23281221 0.045321107 -0.0804916 -0.37498572 -0.15806001 -0.120305665 -0.024635108 0.8573976 0.14254381 -0.13390364 0.04646628 -0.19580713 -0.64926815 0.3626237 -0.08099182 -0.29390392 0.19429427 -0.20858742 -0.44745004 -0.12161338 -0.16491136 -0.30798933 -0.38989612 -0.13899046 0.21539764 0.038917515 -0.856642 0.45161864 0.19327293 -0.27845046 -0.21932858 0.08780578 0.6191682 0.20566045 -0.11737194 0.10890789 -0.52289253
possible -0.34162247 -0.19075559 -0.20582502 -0.077336885 0.2053323 0.4365586 -0.045383547 0.6331577 -0.70439285 -0.3155941 -0.35067973 -0.5297046 0.15612966 0.32910192 0.18021418 -0.16085157 -0.0009839545 -0.364077 -0.03752406 -0.040223002 0.03356549 -0.03068112 0.23843397 -0.27991593 0.060429282 -0.010026022 -0.27826518 -0.14348786 -0.056304004 0.4105882 -0.5370546 -0.7965804 -0.019024005 -0.13771613 0.33011377 0.020459099 -0.040361457 -0.024532236 0.04812432 0.13814852 -0.40392113 -0.15061824 0.06373248 0.17201912 0.16387218 -0.12669872 0.15718704 -0.2994358 -0.21034105 -0.5388141 -0.16670954 0.1431534 -0.18317321 -0.0712246 -0.4126855 0.28154045 -0.4918633 0.086248346 -0.010345222 -0.05987447 -0.34217682 0.26200172 -0.2853599 0.3426641 0.5028241 -0.35341266 -0.28885084 -0.23441172 -0.1983693 0.0038358138 0.3359466 0.10797037 -0.38052538 0.21285518 0.04742178 -0.28089684 -0.029527154 0.098996356 0.117593564 0.19976683 0.7659878 -0.20960738 -0.31728673 -0.46765962 -0.45349696 0.28901887 0.12758791 0.0586561 -0.4251476 -0.42638814 0.10465509 -0.047399495 -0.3301761 -0.026392816 0.34516814 -0.48529816 0.22458012 -0.019111633 0.20760517 -0.6503295
language -0.2753962 -0.1546853 0.22662784 0.05690648 -0.019949624 0.68949825 0.42673746 0.010058372 -0.1560366 -0.48389477 -0.28232637 0.25810373 0.111639686 0.30320337 0.122791566 0.1587539 0.2760674 -0.33882654 -0.10290995 0.6641814 0.009394304 0.24420239 -0.20480365 -0.532017 -0.170434 -0.13202217 -0.22356088 -0.3211717 -0.004961961 0.033916738 -0.86153835 -0.15154794 -0.45273858 0.09779091 -0.021466337 -0.09222746 0.22028567 0.11550716 0.2952111 -0.08870767 -0.77173316 -0.569684 -0.45213857 0.041521307 -0.33969986 0.121739894 -0.033347312 0.06510962 -0.057182293 0.0750805 -0.13226406 0.23531948 -0.09597922 -0.08230424 0.21428254 0.068750486 -0.55430174 -0.19849624 0.15292953 0.3562345 0.31134835 -0.47334465 -0.28590038 0.32002488 0.09678196 0.090147674 -0.2747873 0.27388498 -0.230537 -0.60374475 0.27302125 0.12214583 -0.05282421 0.0044387737 -0.10808252 -0.2860469 0.4663828 -0.06272146 -0.15685292 0.06540579 -0.47668958 -0.7104294 -0.21935384 -0.7763855 -0.5865042 -0.3502167 0.56895614 0.18954961 -0.12716992 -0.08191702 0.20315742 0.09712745 -0.33729628 -0.3092811 0.23171596 0.3773052 -0.3749802 -0.13336961 -0.08124841 -0.015864763
assembly 0.04634292 -0.2718877 0.44518816 0.14094846 -0.0447767 0.7502091 -0.092965275 0.60859656 -0.39123356 -0.77883404 0.066929616 -0.1126758 0.5738871 -0.18644203 0.13875796 0.00509091 0.3915197 0.6508775 -0.48921034 0.5058953 0.31929997 -0.38854453 -0.17502676 -0.4034483 0.089649096 -0.33102775 -0.66363484 -0.4817426 0.3408682 -0.41382068 -0.5560278 -0.19463766 0.12043457 0.1052272 -0.006742364 -0.5414266 0.18187271 0.15821835 0.15222852 -0.9859393 -0.5658505 0.2332152 -0.31107324 0.06186971 0.3483314 0.3705854 -0.65505993 0.00078475365 -0.030868892 -0.2632575 0.5903141 -0.3716845 -0.08929089 -0.053550955 0.15733625 0.5515603 0.08464547 0.14810365 -0.20000066 0.92500347 0.34641966 0.19724375 -0.32629874 -0.32929176 -0.20726527 -0.13047965 -0.09938429 0.07088671 0.44516563 -0.39575794 0.6293546 -0.053249724 0.3101574 -0.17751008 0.6860265 0.023649894 -0.15866114 0.6659389 0.57274646 0.52006346 0.74061155 -0.010468821 0.0061443625 0.01111958 -0.77116 -0.03744898 -0.21319304 0.028714998 0.13368551 -0.43867242 -0.008785039 0.1272103 -0.21389052 0.50830305 -0.6028503 -0.5314094 -0.2660085 0.8074401 0.486537 0.44712785
project -0.1809596 0.26832753 -0.05856678 -0.16753627 0.017475646 0.49552196 0.46185115 0.2653144 -0.284547 -0.15327582 -0.073364906 0.024676634 0.3956671 0.19413997 0.066869505 -0.18961468 -0.11201479 -0.7003948 -0.3185685 -0.15640235 -0.014246282 -0.01876034 0.013699379 -0.3687189 0.184183 -0.32136327 -0.10244537 -0.11802586 0.039409857 -0.1080938 -0.5512514 -0.29967996 0.21865138 -0.06937903 0.2741026 -0.34762284 0.3658924 0.2502274 -0.17584765 -0.08933166 -0.5927893 -0.45326862 -0.46441212 0.38504887 -0.04063851 0.03537955 0.2345217 0.015716601 0.062286474 -0.6249628 0.0070811026 0.47395042 0.16122581 0.1657733 0.036267515 0.28243592 -0.40471226 -0.13485384 0.096385606 -0.27251938 -0.1408364 -0.20204985 -0.2750847 -0.33028498 -0.032233488 -0.10116816 -0.16269748 0.33658385 -0.08972092 -0.18264435 0.4245398 0.4027664 -0.20491649 0.0079953205 0.32220107 -0.55905944 -0.22193946 0.16941594 -0.25756255 0.06258583 0.06727086 -0.14749324 -0.29930657 -0.19283327 -0.3502693 -0.2850909 -0.030133195 0.012886482 -0.59407026 -0.3094369 0.2879872 0.049960557 -0.091798946 0.119093925 0.15851814 0.005488012 -0.06903707 0.3194283 -0.22401942 -0.022577632
sqlstatement 0.02479924 -0.18731791 0.011906283 0.33297804 0.026323278 0.19782133 0.70266336 0.06424057 -0.15537907 0.094774194 0.27804986 0.10643904 0.15975645 0.9066007 0.19748114 0.13209422 -0.3043216 0.013439584 -0.115229465 0.43311185 0.4603029 -0.017973587 -0.18157385 -0.5212055 0.29215497 0.32611454 0.48078325 -0.13112327 0.43368977 0.061403103 0.040821332 0.07274323 -0.2178341 -0.6284965 0.01966241 -0.26980045 -0.22782718 0.59770215 -0.014216525 -0.38025954 -0.09302838 0.0021680156 -0.34264478 0.06688222 0.16178584 0.4218082 -0.55171925 -0.28588971 0.44444713 -0.382738 0.18752863 0.109690525 -0.3746504 0.949025 0.26283118 -0.22528611 -0.29571223 -0.03857671 -0.21269688 0.12526888 -0.045888744 0.030850982 -0.056546107 0.062997095 0.122724175 0.20673062 0.077300414 -0.11524516 -0.0804188 0.2956197 0.17886658 0.043463856 -0.34731054 0.7834511 -0.34702018 0.14985329 0.08844657 -0.043750547 0.14188783 0.19749878 0.36935356 0.45700774 0.3883961 -0.33865455 -0.10647617 0.43809146 0.59274983 -0.016793046 0.5855282 -0.7763025 0.36975318 -0.039975688 -0.5387169 0.1978581 -0.16525345 -0.96814877 -0.3170665 0.06468355 0.1915324 -0.14374019
version 0.007916129 -0.0062145097 -0.05437877 -0.0639061 0.022760296 -0.08330167 0.371194 0.22052287 -0.06782249 -0.32207915 0.22830284 -0.035620112 0.9885585 0.04080611 -0.33208746 0.20874621 -0.004560455 -0.039040394 -0.30901265 -0.033803023 -0.04900839 -0.14577432 -0.035261348 -0.12158199 0.46007857 0.022756351 -0.061480958 -0.050662544 0.48686883 0.25661254 -0.06630277 -0.041017268 0.1788136 -0.046930116 -0.12360347 -0.14208727 0.16036023 0.71814305 -0.1538867 -0.27624908 -0.4033293 0.000425686 0.30778766 0.4938306 0.28782645 0.2947557 -0.6395664 -0.28376555 0.13357253 -0.14006968 -0.14727764 0.011962176 -0.36083674 0.08857675 -0.27731442 0.15191719 0.26958674 -0.11077669 -0.25116363 -0.2983048 -0.17426778 0.0639591 0.14456734 -0.003953939 -0.16596985 0.06530855 -0.04250655 -0.06919614 0.19241661 -0.06451367 0.6297051 0.18710758 -0.27030507 -0.3411201 -0.108700566 -0.3412675 -0.08688607 0.039955765 0.07297343 0.48792857 0.307474 0.08632511 0.2087646 0.22274919 -0.36534372 0.34836215 -0.302641 -0.065022305 -0.44533896 -0.2501119 0.31812224 0.10452201 -0.019409757 0.00866724 0.18509884 0.118545085 0.19008066 0.70881426 -0.021638844 0.37506315
really -0.19800426 0.10004967 0.25413474 0.008072607 -0.15796101 0.69544214 0.3417461 0.4080138 -0.33642954 -0.36437386 0.009489717 0.43878752 0.3844487 0.12730834 0.06566254 -0.13817465 0.038695335 -0.45421922 -0.19149695 0.35382497 0.27412832 -0.09463056 0.0039145597 -0.2395473 0.118925095 -0.5385887 -0.3013291 -0.01214728 0.4638956 -0.3019173 -0.47973457 -0.09130174 0.10444264 0.08829158 0.42784843 -0.26633486 0.3499822 0.06857947 -0.21754837 -0.33406538 -0.63039845 -0.5166974 -0.7122774 0.11410102 -0.06302958 0.25190058 0.24274628 -0.10771813 0.050180685 -0.21030739 0.12470236 0.373447 -0.007646495 0.039720014 0.13577425 0.44734263 -0.6078973 0.22659759 0.11235712 0.2916494 0.09174687 -0.31106457 -0.20903094 -0.13928689 -0.33654177 -0.24007699 0.047049735 0.6331047 0.11964435 -0.16205895 0.50306314 0.19937731 0.029733635 0.104395926 0.4172183 -0.5369312 -0.19003752 0.28935313 -0.2950045 -0.14037089 -0.034429103 -0.23193967 -0.34186766 -0.20298792 -0.26642156 -0.5202786 -0.07575315 0.27945125 -0.7243489 -0.15513171 0.22373553 0.41380882 -0.027412428 0.11891057 -0.12819654 -0.01246067 -0.040367972 0.2038387 -0.2155732 0.16862947
number -0.29769397 0.14916666 -0.045398355 0.021518722 0.1939793 0.489279 0.16493158 0.2046487 -0.410328 0.20689659 -0.6341428 -0.344662 0.6445031 0.560688 -0.48853773 -0.089996904 -0.035796583 -0.116174825 -0.20208326 -0.19680108 0.25459686 -0.12824787 -0.19950047 -0.38213947 0.14509211 -0.13654235 0.2181965 0.4334639 0.26309314 0.12166166 0.049279142 -0.24014789 0.47885045 0.03990516 0.07157371 -0.42053893 0.49617732 0.048956163 0.082378365 -0.29037547 0.37706098 -0.1493349 0.81133455 0.29206946 0.38997707 0.34441072 -0.47887215 -0.32522857 0.2353404 -0.50503033 0.02476054 -0.032222874 0.41457117 0.39286622 0.35588056 -0.0069052167 0.021980837 0.1978041 -0.6771091 0.21701238 -0.5265576 -0.51617587 0.05937822 -0.12812018 0.11710468 -0.41841125 0.026765293 0.012350839 -0.24433172 0.16493165 0.47113207 0.20429707 -0.38150313 0.0012898414 0.11346823 -0.40165967 -0.13390663 -0.12540255 -0.33879575 0.41272554 0.28475133 0.30550918 -0.39452815 0.29259503 0.016373465 -0.18994097 -0.22966363 0.07341405 0.14688534 -1.0609169 0.29316428 -0.19225623 -0.20976292 0.14100014 0.25179985 0.22397378 0.2532809 0.3878575 0.062412012 -0.2770083
studio -0.4542714 0.18933088 0.16931562 0.043786477 0.16528986 0.2908048 0.21492642 0.3975474 -0.4516313 -0.3022569 -0.20753896 0.10361224 0.77199 0.22037125 -0.0618138 -0.031135293 0.00071576907 -0.64497787 -0.34383592 -0.4965386 -0.0523955 0.028632108 0.12133193 -0.4142243 0.29989055 -0.04080891 -0.027159099 -0.23493975 -0.024007378 0.17142585 -0.27098405 -0.44664693 0.12512212 -0.3014307 0.2347294 -0.008354823 0.12817217 0.114102416 -0.47036582 -0.2724604 -0.47771302 -0.1215346 0.16281238 0.5194395 0.051955115 0.3311451 0.16470389 -0.005197037 0.32749674 -0.6290806 -0.004962438 0.22497647 -0.31130874 -0.11262828 -0.127925 0.4965441 0.01675646 -0.1970353 -0.15995903 -0.2082288 -0.39113644 0.019627163 -0.17840317 -0.111295626 0.41206446 -0.10167939 0.035082266 -0.0054962575 0.31786782 -0.07961627 0.5775477 0.060649145 -0.6109468 -0.22139964 -0.015646184 -0.5302111 0.034204595 -0.07861176 -0.15394619 0.3750985 0.26671225 -0.123608336 0.14753067 0.19157167 -0.017287742 0.010545437 -0.18865433 0.19203989 -0.16957979 -0.4000619 0.42651424 -0.12470199 0.019905027 -0.16662817 0.38640133 -0.3188859 0.0931353 0.17655385 0.22283895 0.090669066
create -0.17056622 -0.0071986686 0.28463164 0.13822855 0.04754266 0.23890983 0.23029594 0.10563599 0.01807872 -0.39069596 0.43026403 0.071223736 0.34058312 0.4386135 0.032211553 0.3026979 -0.10673943 0.097908065 0.18328115 0.47532147 0.5623781 0.14604683 0.12511808 -0.24158372 0.15093942 0.054552566 0.24164768 -0.3122703 0.16214232 0.27025452 -0.102054216 0.025743762 -0.31573114 -0.21292062 0.051774394 0.15356632 -0.26235962 0.23939702 0.13801737 -0.30673856 -0.4121417 0.08923585 -0.3944786 -0.005176343 -0.008673577 0.07923368 -0.17265806 -0.3157708 0.041918855 0.14107992 0.034714397 0.10601753 -0.5017665 0.17115536 -0.13953795 -0.24457869 -0.6913105 0.27484256 0.0022494313 0.42862153 0.20826723 -0.032144357 -0.010122868 0.2126234 0.12474849 0.2283564 -0.023372913 0.09544973 0.3654475 -0.03419424 0.14347301 -0.026613804 -0.3997284 0.551836 -0.22770156 -0.13981499 0.27738637 -0.058521774 -0.10671907 -0.19894397 0.0045859185 -0.14076303 0.19737811 -0.37198427 -0.31984168 0.10971286 0.35761967 0.40278757 0.12877041 -0.3433105 0.2389624 -0.005115356 -0.3347722 -0.029796986 -0.039958782 -0.77006584 -0.05976079 -0.1422063 0.15396693 -0.23851223
table -0.36820173 0.047653235 0.031100167 0.029187879 0.4580852 0.06723906 0.19851151 0.13399984 0.011331582 -0.7235725 0.4846516 -0.16127777 0.81470937 0.892532 0.16410987 0.45689625 -0.09974592 0.22230357 0.25137255 0.29758132 0.35986766 0.16673902 0.10324202 -0.50475717 0.4874425 0.43224725 0.45084605 -0.3269614 0.0830931 0.7279338 -0.048002664 -0.14122891 -0.10986785 0.019404875 -0.09451011 0.13874637 -0.19817068 0.045651905 0.036221206 -0.43678972 -0.39742878 -0.01498585 0.03807547 -0.05121287 0.2425417 0.31528944 -0.088535875 -0.5838816 0.20621487 0.08367011 0.44133088 -0.03162397 -0.3989217 0.056637287 -0.04083596 -0.2112457 -0.41220194 0.26349834 -0.3030065 0.26041713 0.14141424 -0.16939296 0.0023137012 -0.09347523 0.4090715 -0.0040767533 0.1680166 -0.13875712 0.2966028 -0.15662129 0.05972206 -0.02898922 -0.86956817 0.7236936 -0.3365571 -0.184274 0.14506054 -0.27769813 -0.19392712 -0.36190188 -0.030488333 -0.121040076 0.4100179 -0.6944195 -0.17839055 0.10466749 0.12881504 0.20996451 0.33493906 -0.32135406 0.41660205 -0.14546625 -0.29253578 -0.19822854 -0.109156035 -0.9639103 0.23742515 0.013397555 0.18295613 -0.6646647
stream 0.014479346 -0.27419156 0.22520186 0.32988474 -0.18699937 0.29191205 0.14304419 -0.019803539 -0.118818186 0.54876494 -0.40589216 -0.03227804 0.39688644 0.89021033 -0.008644733 -0.043153256 -0.3335357 0.10620334 -0.29807103 0.059993815 0.47001317 -0.048042696 -0.4956764 -0.40878558 0.23502061 0.21945062 0.7721635 0.24922918 0.9284056 0.13712773 -0.13879423 0.40827164 -0.12066641 -0.5023015 0.014553808 -0.5215856 0.04182129 0.8291479 -0.04818094 -0.5616601 0.011034092 0.09639271 0.1534773 0.37804022 0.05279266 0.5119191 -0.56130207 -0.4013281 0.24264307 -0.54597014 -0.06338874 0.48815396 -0.31195247 1.0279655 0.5894144 -0.3476799 0.005910802 -0.28492805 -0.52621806 0.0073936316 -0.3331264 -0.21750087 0.09674904 0.17627971 0.21039681 0.04737042 -0.10749384 -0.38832226 0.13958478 0.2949117 0.8664664 0.011835945 -0.4200329 0.43748203 -0.42452216 0.055005476 0.27213502 0.07016755 0.4080433 0.48942104 0.27057514 0.23449989 0.23799177 -0.0111735985 -0.23193716 0.23042925 0.44846505 -0.022643061 0.5257841 -0.886263 0.2214824 -0.022459842 -0.20894635 -0.24157517 0.34414935 -0.28022823 -0.35515746 -0.11092351 0.1697919 -0.06641552
strsql -0.0053792284 -0.3065893 0.24546011 0.3400769 -0.18471663 0.3226981 0.059128195 -0.012257383 -0.11528571 0.56917906 -0.44522205 -0.076711185 0.4212393 0.93086445 -0.00016846783 -0.03164174 -0.33742523 0.185082 -0.2805774 0.110184506 0.52648866 -0.046227954 -0.5268133 -0.40665907 0.21883874 0.21960329 0.8392032 0.29321423 0.98174304 0.17390668 -0.14285146 0.43371728 -0.12113974 -0.467417 0.025735343 -0.5413066 0.034187783 0.84076375 0.010272074 -0.61125493 0.06635227 0.08972895 0.21618424 0.35202038 0.05519381 0.5470125 -0.58184206 -0.42856398 0.20010917 -0.5250463 -0.05419553 0.5010125 -0.31323782 1.0521098 0.63936806 -0.39240474 0.0017144015 -0.26860628 -0.58500826 0.081879 -0.32218087 -0.23723836 0.101143025 0.20144671 0.21892919 0.013606895 -0.11121757 -0.4165195 0.14292905 0.2880557 0.9227283 0.0035247921 -0.42223284 0.48180154 -0.4224076 0.027666155 0.27781048 0.07962937 0.42450595 0.48907536 0.26006293 0.21313281 0.22696282 -0.05536856 -0.23428418 0.2049625 0.44002715 -0.024173781 0.567981 -0.91228527 0.21258621 -0.0002359894 -0.18998452 -0.26226136 0.32161862 -0.26546866 -0.33576483 -0.14371641 0.17861924 -0.14361118
sqlconnection 0.039277542 -0.27259102 -0.075026385 0.24257065 -0.15460356 0.3203933 0.49211162 0.04048672 -0.18935895 0.2707478 0.009373708 -0.038136173 0.28900295 1.0311471 0.17176197 -0.08038489 -0.3785986 0.14577809 -0.33146453 0.11394722 0.41110328 -0.096956596 -0.546569 -0.6081088 0.3928514 0.4130885 0.78378326 0.025405254 0.86081177 0.16043423 -0.23878783 0.3661334 -0.11173571 -0.47850493 -0.069752656 -0.6682094 0.0055675195 1.0243574 -0.06673959 -0.63236904 -0.2491086 0.060401674 -0.11446032 0.32693288 0.19772473 0.4341539 -0.6355112 -0.59015065 0.17261735 -0.54442537 0.32000616 0.29865557 -0.39535457 1.1430149 0.59384334 -0.39114714 -0.15178402 -0.41222754 -0.39555964 -0.14410594 -0.22186679 -0.13282615 -0.0032162217 0.05632595 0.26643 -0.017943917 -0.10124112 -0.3544235 0.057867177 0.08761372 0.69343674 0.07361732 -0.675587 0.74257374 -0.3054365 0.27450773 0.20516486 0.10654859 0.5390824 0.5273687 0.5077754 0.36145106 0.25742063 -0.3855619 -0.46301237 0.5313978 0.6290843 -0.23931262 0.54201657 -0.90041375 0.27930224 -0.045792814 -0.29683104 -0.051116057 0.058206778 -0.7066019 -0.42829907 0.29716653 0.11881197 -0.10588177
something -0.18007095 0.2325196 0.12319973 -0.030536735 -0.2947287 0.38269565 -0.09716956 0.0998473 -0.12694629 -0.83717984 0.32238954 -0.13483626 0.6631488 0.092152394 -0.10508971 0.074114904 0.027694058 0.32221904 0.037915003 -0.10071486 -0.0653378 0.013709957 -0.23191096 -0.5696611 0.2190483 -0.018610116 -0.17073527 0.046623975 -0.29866213 0.29435462 -0.2986564 0.0642892 0.13055949 0.15533027 -0.024326982 -0.31398717 0.3119008 -0.085279785 -0.13744922 -0.09615042 -0.3853339 -0.0019274749 0.0016513313 0.24470975 0.20821017 -0.07312556 -0.032589354 -0.12038065 0.06263378 -0.21709129 0.12623045 -0.06944727 -0.12272099 -0.13236015 -0.09601376 -0.08050552 -0.10941697 -0.0923054 -0.08291418 -0.17250548 0.1026776 0.01265159 -0.10416042 -0.077179305 0.15960422 -0.3144556 -0.2601108 -0.06372302 -0.119645275 -0.3334199 0.027889412 0.21232021 -0.20985152 0.30868194 0.09070274 -0.018426232 -0.04052108 0.10131598 -0.046323616 -0.1879231 0.15321463 -0.08188772 -0.088234134 -0.04794405 -0.5296993 -0.10702133 0.30600563 0.21845606 -0.2313301 -0.17384699 0.13203235 -0.08177223 -0.0050283046 -0.30888027 0.1977162 0.17156549 -0.0633292 0.4152143 0.031486977 0.18446594
ironpython -0.5916408 0.1072525 0.1675009 -0.030331496 -0.2949058 0.8802802 0.730292 -0.11370817 -0.22374327 -0.46558973 0.1044278 0.41915 0.2858119 0.20183615 0.19846687 0.13668765 0.16948633 -0.36831877 -0.40240374 0.24027923 0.18501642 0.27691805 -0.3242028 -0.46474588 -0.38194647 -0.21301411 -0.09868301 -0.31826845 -0.055510674 -0.0012769733 -0.5138753 -0.23815782 -0.09582985 -0.32191655 0.3622236 -0.4047118 0.5125243 0.31754863 0.124885954 -0.4204819 -0.5838089 -0.81500655 -0.48175168 0.1600406 -0.42563435 0.34524432 -0.11666433 0.2009917 -0.02514966 -0.058559895 -0.036889374 -0.03229419 -0.14372084 0.39045975 0.36452794 0.24949461 -0.5526234 -0.40885746 0.077087335 0.027448809 0.25187713 -0.34900567 -0.46006835 0.097694285 -0.04766655 0.025550025 0.12428876 0.65825164 -0.25917324 -0.56916845 0.43438828 0.06240867 -0.20818298 0.15126617 0.045936644 -0.47339875 0.1726669 0.11380882 -0.50798446 0.40026158 -0.36648074 -0.2839551 -0.17066026 -0.4893899 -0.3429689 -0.3042586 0.52969855 0.21470451 -0.22036576 -0.42611378 0.5578057 0.33493745 -0.033148997 -0.010378367 -0.08584305 0.38727698 -0.4095999 0.35418788 -0.33052287 0.086270906
service -0.48996133 -0.0033248202 0.42144874 0.08660283 0.24996153 0.21879673 -0.2594982 0.5741456 -0.5321935 -0.5594753 -0.49823663 -0.36440957 0.8379746 0.21895626 0.01537159 0.055344604 0.07755795 -0.19544685 0.060369335 -0.21467987 -0.0042875255 -0.2141997 -0.008975453 -0.25390443 0.21020974 -0.03286226 -0.29875618 -0.015042266 0.08305215 0.23157522 -0.36502162 -0.29955518 0.11937226 -0.08503333 0.33137962 0.18012242 0.19071575 -0.315518 -0.40592894 -0.59333974 -0.3994863 0.17447048 0.23143616 0.28948563 0.19456364 0.36519456 0.11895209 -0.11209478 0.3382242 -0.4742787 0.027508972 -0.0573276 0.034233633 -0.09645496 -0.067926995 0.30589083 0.30240527 0.09588899 -0.29154634 0.38122952 -0.18597715 0.08136474 -0.14874743 -0.08895391 0.37755936 -0.09156499 -0.10903216 -0.034658037 0.58243626 0.078507975 0.5365173 0.08186086 -0.37451333 -0.3953653 -0.041088488 -0.26643142 0.46471766 0.08042486 -0.15203364 0.11608828 0.25156072 -0.2849917 0.19020641 0.21595882 -0.22852735 -0.16980454 -0.3264711 0.30487213 0.050373342 -0.32185456 0.31079298 -0.24498491 -0.10383167 -0.28486583 0.083945334 -0.3587652 0.014550568 0.0043861284 0.55931604 -0.011020572
server -0.33129779 0.0068696723 0.18519726 -0.046347413 0.16256027 0.026770134 0.20352 0.28506127 -0.32041764 -1.1653912 0.44602355 -0.41248122 0.98723835 0.37903684 0.0037052191 0.32304797 0.03348509 0.42168832 0.11507465 0.227043 0.07403847 -0.21141301 -0.12664796 -0.5881154 0.61054593 0.470506 0.037300907 -0.078038864 0.039650224 0.6933059 -0.07778008 0.080136634 0.12869425 0.21298952 -0.04075526 0.09630988 -0.043709278 0.11170351 -0.18903542 -0.75634485 -0.46272302 0.47496545 0.29668057 0.14318956 0.5892114 0.3696734 -0.32383597 -0.605612 0.33777675 0.031512357 0.7112223 -0.63270247 -0.2516407 0.10187759 0.011484496 -0.2582293 0.23929892 0.10171726 -0.49167377 0.3080494 0.24748223 -0.049105953 0.039706904 0.0018104833 0.36193237 -0.32249913 -0.008397255 -0.18136607 0.44428515 -0.26043805 0.09739059 -0.019031407 -0.6969638 0.3257824 -0.072625756 0.053336583 0.4296963 -0.085421406 -0.057313982 -0.11824626 0.3330024 0.008632492 0.39512023 -0.29880396 -0.47497323 0.2856585 -0.12251995 0.12688775 0.31723633 -0.28964353 0.4236308 -0.20214126 -0.10325619 -0.04855237 -0.35236654 -0.6439622 0.11576869 0.754409 0.48941958 -0.16080265
live -0.23054439 0.016148807 0.31655434 0.08330164 0.017296271 0.038275294 0.32148004 0.17857672 -0.163781 -0.96398395 0.26358745 -0.23106804 0.96256524 0.26833504 -0.18281965 0.35838994 0.0155314505 0.41008985 0.113352776 0.30575725 0.09125208 -0.10002638 -0.17282581 -0.7106963 0.45555267 0.41299468 0.07392765 -0.14217514 0.015255177 0.5421916 -0.15482043 0.14410542 -0.07469914 0.16087672 -0.22450176 0.047222838 -0.10109203 0.1608123 -0.087712556 -0.6357051 -0.43385312 0.5811179 0.40401152 0.29241633 0.5870872 0.31837562 -0.45067742 -0.46055797 0.32273823 0.09221745 0.5061157 -0.56317365 -0.28966254 0.06027247 -0.08640802 -0.33947328 0.2670061 0.09879741 -0.46270326 0.40614507 0.13319398 -0.23757373 0.039578024 0.19250304 0.36904165 -0.12043771 -0.27882087 -0.25838557 0.4821029 -0.29010478 0.13981663 -0.0041585388 -0.6132238 0.12370234 -0.12562507 0.10977149 0.6489212 -0.14962894 -0.015320385 0.065254234 0.18734802 -0.09877037 0.31951472 -0.06286445 -0.43180287 0.20295839 0.07879875 0.14781155 0.53949845 -0.3828727 0.32544726 -0.3296665 -0.20794114 -0.08775702 -0.06662499 -0.39489743 0.07590099 0.52635676 0.5939295 0.15371266
query -0.24477322 0.27084118 0.19846112 0.12671807 0.2007048 0.28322357 0.33767456 -0.0911674 0.14781578 -0.50198 0.6675543 0.25017074 0.65290123 0.60939395 0.12964949 0.41976374 -0.12246089 0.24723317 -0.06085123 0.44748724 0.4774106 0.18474054 -0.06334333 -0.65041316 0.22701268 0.19595888 0.46917316 -0.44633946 0.00022475744 0.2972634 0.02838809 0.058996227 -0.059416305 -0.10377876 -0.016568096 -0.1306971 -0.040940516 0.10303231 0.120182395 -0.6117575 -0.24195653 -0.14531805 -0.2612266 -0.01804306 0.009892645 0.46148005 -0.24885678 -0.13834721 0.24467292 0.06737674 0.4144298 0.03821001 -0.34053388 0.1620391 0.17688178 -0.16026 -0.3532791 0.14133817 -0.23370524 0.4510303 0.34886387 -0.31819978 -0.104676925 -0.1975657 0.10405796 0.25947103 0.15308146 0.20395766 0.24560107 -0.2626061 0.03583749 -0.033490017 -0.55886614 0.6371322 -0.10347029 -0.26934507 0.04240092 -0.17280675 -0.27369362 -0.12554745 -0.2763031 -0.054734945 0.3424011 -0.53268373 -0.12459222 -0.10451026 0.2679809 0.20385258 0.45420372 -0.466149 0.53196806 0.0038441722 -0.24943005 0.07620132 -0.3566912 -0.70247847 -0.008515891 0.1004595 0.14993602 -0.2353353
varchar -0.2730856 0.3968581 0.23594722 0.17117546 0.25868616 0.36144087 0.34342727 -0.04324893 0.15787539 -0.55188215 0.84252965 0.29418057 0.7881094 0.71648234 0.096475095 0.4927773 -0.18767154 0.2511635 -0.13003077 0.47408122 0.6051795 0.22017157 -0.047625676 -0.8140251 0.29889858 0.19597355 0.5959187 -0.59475714 -0.05528924 0.34710732 0.008831753 0.04224831 -0.055518128 -0.18545553 0.012260896 -0.16240236 -0.036453653 0.124823086 0.118841656 -0.71771073 -0.31735086 -0.15873119 -0.35103703 0.037566565 -0.028724983 0.50770247 -0.28166905 -0.14106943 0.25337094 -0.020829553 0.43132588 0.14405872 -0.46249795 0.109337255 0.15920877 -0.1721432 -0.48746362 0.14569768 -0.2094297 0.5147356 0.41076922 -0.3155615 -0.12224637 -0.29843292 0.17868204 0.39624926 0.107953504 0.22784515 0.31982422 -0.327023 0.05830716 -0.0026214786 -0.7177078 0.7649788 -0.13089485 -0.37832585 0.013376961 -0.2247911 -0.29350227 -0.11887012 -0.287772 -0.08351495 0.41136417 -0.6203097 -0.21613678 -0.07895384 0.34544104 0.27198428 0.48388323 -0.6114298 0.6678955 -0.04531182 -0.34220704 0.09293167 -0.38114005 -0.9372501 -0.023067044 0.09855797 0.18038835 -0.28902486
function 0.061876863 -0.37441838 -0.337178 0.012872696 -0.18899746 0.2942902 0.59552073 0.16156302 -0.21869713 0.14637473 0.21188869 0.030116362 -0.3162126 0.66147697 0.5456471 -0.24941263 -0.25554374 -0.045084555 -0.18828142 0.22421855 0.23853254 -0.12252637 -0.39076656 -0.14854723 0.1925286 0.38171118 0.47080177 -0.019038795 0.771511 0.10192525 -0.3542917 0.18219112 -0.19017655 -0.24516213 0.13077544 -0.46841204 -0.09414888 0.82425815 0.0012029508 -0.36690745 -0.3905063 -0.14853317 -0.5354651 -0.027932592 0.04291525 0.07503723 -0.1633957 -0.63578695 -0.21107358 -0.15660694 0.41151386 0.046383027 -0.29435542 0.92134506 0.46779427 -0.2890226 -0.42805958 -0.376316 0.03876204 -0.23555012 0.044814285 -0.046274945 -0.13202518 0.19197693 0.062296577 -0.19790679 -0.014480157 -0.06976094 -0.07705316 -0.09990578 0.41145688 0.010234372 -0.46116254 0.8031495 -0.02671916 0.3616055 0.19780166 0.19920261 0.47308075 0.23661898 0.41960546 0.14434892 0.029588418 -0.8219129 -0.47500202 0.5478414 0.51746017 -0.35220033 0.059045155 -0.34736273 0.09552205 0.29462197 -0.11120541 0.1373297 -0.32507995 -0.63406456 -0.36690822 0.36964664 -0.1880003 -0.35583875
used -0.5823624 -0.30310914 -0.106623866 -0.16882372 0.087374 0.45009556 0.3512154 0.3124886 -0.43964145 -0.29072675 -0.640092 -0.2670565 0.36077473 0.31637347 0.47647464 0.059185203 0.1339503 -0.28608963 0.0977895 0.27714738 -0.045244213 0.01853903 -0.14906321 0.14181724 -0.2408957 0.07761845 -0.24220833 0.14742795 0.3659339 0.29567316 -0.41892827 -0.5749707 -0.0027730127 0.12110149 0.37969244 -0.1897087 0.26899073 -0.048377443 0.09495307 -0.21257119 -0.18123607 -0.70277345 0.2955427 0.03086884 0.056205336 0.3203401 0.15865046 -0.21155487 -0.1005141 0.004695791 -0.18640094 -0.19504644 0.31021407 0.36252075 0.114740655 0.2679625 -0.015233985 -0.053863894 -0.22321682 0.0010582615 -0.11089634 -0.22286083 -0.3655648 0.39169848 0.0174542 -0.4182972 0.08273623 0.26646096 -0.36520538 -0.08156069 0.55864847 0.05712843 -0.16243112 -0.034017645 0.06706318 -0.33772284 0.2022267 0.10619188 -0.3702461 0.26319993 -0.0360077 -0.34396377 -0.22573055 -0.6160524 -0.033621762 -0.35347372 -0.1409501 -0.029409384 -0.20817302 -0.11175313 0.26715958 0.47785646 0.04761416 -0.097972505 -0.034615323 0.46537295 0.17148903 -0.00920204 -0.037307657 -0.56071204
game -0.10919263 -0.33724582 0.03205421 -0.025367785 -0.12959811 0.634364 0.47919703 -0.18292882 -0.09374239 -0.33300546 -0.20829754 -0.020300029 -0.036746725 0.40703395 0.25857946 0.10245104 0.19182725 0.010510049 -0.06387378 0.46399328 -0.025006842 0.23413277 -0.21397515 -0.42805395 -0.2672527 -0.0576934 -0.20268153 -0.26654693 -0.071722284 -0.06247068 -0.6404225 -0.17188643 -0.36040387 -0.072405845 -0.24057154 -0.36067736 0.113103345 0.36463416 0.32370365 0.019567467 -0.44823217 -0.5940883 -0.3358143 -0.11600201 -0.15695511 0.014966459 -0.14649433 0.123376675 -0.028956784 0.09163968 0.000991114 0.067593165 -0.07065835 0.40730563 0.24934845 -0.011154211 -0.5126192 -0.2531841 0.00023670575 0.02904863 0.080005 -0.2843991 -0.33998093 0.16868562 0.09581754 -0.05262579 -0.06671452 0.1315583 -0.43922174 -0.37669066 0.13363837 0.07362506 0.00014988113 0.20206083 -0.056184426 0.1914301 0.10027037 0.12300436 -0.0072296862 0.22852336 -0.10063953 -0.25356072 -0.18794896 -0.6576244 -0.40849534 -0.14570473 0.86982256 -0.07686054 0.24132304 -0.14974321 0.039773595 -0.00829015 -0.33175126 -0.13815586 0.28290617 0.273281 -0.5183411 -0.13339724 -0.085247256 -0.09516551
scripting -0.56763065 0.123082206 0.20393766 -0.027771411 -0.2714457 0.8210406 0.5788023 -0.124065116 -0.32366344 -0.6532411 0.09323505 0.27838767 0.29600683 0.12434513 0.076246746 0.18328732 0.18184188 -0.28556192 -0.1605176 0.44412822 0.19065143 0.18228446 -0.20612384 -0.48599643 -0.33054918 -0.2716844 -0.30365938 -0.28895593 -0.14774956 -0.047506753 -0.4402712 -0.18394907 -0.08527356 -0.15462805 0.30360973 -0.2983323 0.45457923 0.20847203 0.15928411 -0.31037205 -0.6130982 -0.6601986 -0.49585098 0.18018827 -0.26298383 0.2772712 -0.20379855 0.16730319 0.04120246 -0.042126518 -0.08222728 -0.010556351 -0.08213516 0.338009 0.17168279 0.18582456 -0.5677109 -0.21091653 0.05082898 0.17707586 0.2552978 -0.20007738 -0.39729163 0.22741379 -0.09951386 -0.026643882 0.057504464 0.6805631 -0.2968123 -0.4386985 0.26642546 0.13439569 -0.12718777 0.12028883 0.08400805 -0.4123516 0.11689497 0.16961522 -0.4747512 0.29070064 -0.21495177 -0.20899159 -0.27134705 -0.43222225 -0.44729602 -0.33641124 0.47337863 0.32387426 -0.28492847 -0.3929331 0.47970843 0.26670963 -0.12680702 -0.0038128323 -0.060099002 0.33025742 -0.34110075 0.34342763 -0.1452973 0.22344957
wiki -0.5112555 0.14886335 0.19646855 -0.04587523 -0.2635315 0.774572 0.62019134 -0.07165882 -0.14684163 -0.39704588 0.16647609 0.33205912 0.40490147 0.15816997 0.23747681 0.13127147 0.12545419 -0.34743315 -0.3731185 0.1005686 0.13247249 0.24547042 -0.24043705 -0.39988077 -0.32683313 -0.18466939 -0.09571619 -0.30523118 -0.10567589 0.07798661 -0.45155776 -0.3066443 -0.06753278 -0.36421043 0.37805083 -0.35595244 0.42750558 0.24664192 0.0783006 -0.38230574 -0.4571695 -0.7435396 -0.44924882 0.13647407 -0.37685785 0.27196723 -0.04072136 0.2546996 0.0066719847 -0.11735418 -0.13825746 0.0073108394 -0.19131304 0.36711252 0.23181486 0.2458301 -0.47914383 -0.33999527 0.04319809 -0.006220336 0.21113609 -0.3123345 -0.44794834 0.0625694 -0.050547183 0.09243869 0.14116596 0.60419255 -0.14889751 -0.47127917 0.43641707 0.064175 -0.20199932 0.13177319 0.07292114 -0.47231862 0.15193509 0.09799886 -0.54455763 0.3362982 -0.3227443 -0.30354172 -0.09005156 -0.4297821 -0.26458862 -0.2788103 0.48967162 0.20824414 -0.21918501 -0.42351523 0.5833071 0.2926114 -0.016153162 0.012449798 -0.06686051 0.31663224 -0.33237258 0.25758037 -0.25911477 -0.016727807
reference -0.28978503 -0.032948513 0.24002554 0.060048226 -0.27484265 0.29198053 0.012835691 0.6371606 -0.350424 -0.35584486 -0.21204649 0.01786996 0.7480655 0.021001155 0.16563022 -0.13670297 0.1193085 -0.04404051 0.0061735343 -0.20567384 -0.17473122 -0.32904398 -0.39189932 -0.041784313 0.13907225 -0.15704066 -0.43861607 0.2578751 0.5131084 -0.03533873 -0.532111 -0.13910179 0.1532819 -0.05805928 0.4696025 -0.33752134 0.5430733 -0.1404853 -0.4156953 -0.5499474 -0.3793737 -0.1392435 -0.20658381 0.21817748 0.24329849 0.22562176 0.10353358 -0.27231959 0.05228822 -0.39814657 -0.039907217 -0.09707995 0.15083417 0.22698453 0.040347494 0.3996618 0.19881506 -0.026442429 -0.09353336 0.22405422 -0.061887976 -0.12889373 -0.26708546 -0.13173357 -0.18522441 -0.19056737 -0.03816505 0.23002188 0.4020331 -0.035333112 0.6658029 0.17400669 -0.03600517 -0.23822765 0.26697972 -0.058952313 0.40575045 0.33099407 -0.17006639 0.0136142885 0.269664 -0.2729032 -0.11553218 0.08619753 -0.3216625 -0.32451445 -0.2325677 0.054099623 -0.518903 -0.22206572 0.24181871 0.217128 0.13665964 -0.16920228 -0.2568499 0.19751936 -0.06553956 0.38026127 0.020281512 0.29768458
visual -0.48863888 0.21300401 0.21013969 0.06370688 0.06331561 0.2561594 0.1520266 0.34286383 -0.4443397 -0.26772103 -0.24907905 0.021148548 0.8851647 0.15854487 -0.20811993 0.055541027 -0.0064159255 -0.5275822 -0.29785162 -0.4989879 -0.085611686 0.034259982 0.035747286 -0.49031383 0.19599898 -0.07458364 -0.117797084 -0.2563679 -0.0495008 0.11989552 -0.31719235 -0.44119066 0.16333346 -0.3519919 0.20927472 -0.098609075 0.25753143 0.14877994 -0.4344125 -0.3090204 -0.44018212 -0.097449616 0.20455623 0.60522497 0.129228 0.34966812 -0.030606784 0.053314805 0.3331859 -0.68226546 -0.11785841 0.24092343 -0.25278863 -0.036035188 -0.22682066 0.5042921 0.10394627 -0.19225165 -0.18727936 -0.14171097 -0.462064 0.08785441 -0.24158688 -0.086430565 0.41090107 0.025192639 -0.043498646 0.012866463 0.32308713 -0.0068837223 0.6178468 0.09034953 -0.57856125 -0.3390887 0.0047634034 -0.46918935 0.08356719 0.00090550975 -0.14426869 0.52916145 0.36452448 -0.054807663 0.06749809 0.30236784 -0.07320704 -0.020926798 -0.084666446 0.1931646 -0.09540501 -0.58583415 0.42730728 -0.22910231 -0.053294446 -0.145685 0.45523056 -0.2446454 0.09556266 0.2007287 0.3335596 0.25373593
setting -0.3403718 -0.1802438 0.21262218 0.1713364 0.051098827 0.17240043 0.50360006 0.36124688 -0.49680883 -0.5503065 -0.11610357 0.3070877 0.620113 0.29418144 -0.09047058 0.04161849 0.04253531 -0.465626 -0.068097614 -0.06986346 0.078824595 -0.052241158 0.16292691 -0.48922506 0.41774672 -0.043955494 -0.2829808 -0.4838708 0.40413362 -0.26104373 -0.3480534 -0.21456853 -0.15738794 -0.29685754 -0.06154356 -0.07515791 -0.16107418 0.5441035 -0.53381723 -0.3978359 -0.95885676 0.1687884 -0.28630614 0.52136165 0.40149605 0.44012052 -0.15287702 -0.25419083 0.47742596 -0.48133492 0.38188487 0.20839839 -0.4989121 0.24130149 -0.22799657 0.5623814 -0.094303295 -0.03367441 -0.09666963 0.048185907 -0.47861356 0.22814548 -0.19415645 0.0026570335 0.26314422 -0.07573414 0.09524559 -0.020950012 0.60947114 0.07167736 0.59475213 -0.019691184 -0.52404326 -0.21221244 -0.016038433 -0.055922683 0.060602833 0.25320473 0.2762207 0.49461597 0.6948527 0.18469952 0.21273656 0.27752832 -0.12401398 0.17004748 -0.06562408 0.10788295 0.074377894 -0.28355202 0.14466439 -0.18785253 -0.13138269 -0.047862146 0.2812867 -0.89125174 -0.03323963 0.26414526 0.48220298 0.6427463
